FANN_FLO_2.1
num_layers=3
learning_rate=0.700000
connection_rate=1.000000
network_type=0
learning_momentum=0.000000
training_algorithm=2
train_error_function=1
train_stop_function=0
cascade_output_change_fraction=0.010000
quickprop_decay=-0.000100
quickprop_mu=1.750000
rprop_increase_factor=1.200000
rprop_decrease_factor=0.500000
rprop_delta_min=0.000000
rprop_delta_max=50.000000
rprop_delta_zero=0.100000
cascade_output_stagnation_epochs=12
cascade_candidate_change_fraction=0.010000
cascade_candidate_stagnation_epochs=12
cascade_max_out_epochs=150
cascade_min_out_epochs=50
cascade_max_cand_epochs=150
cascade_min_cand_epochs=50
cascade_num_candidate_groups=2
bit_fail_limit=3.49999994039535520000e-001
cascade_candidate_limit=1.00000000000000000000e+003
cascade_weight_multiplier=4.00000005960464480000e-001
cascade_activation_functions_count=10
cascade_activation_functions=3 5 7 8 10 11 14 15 16 17 
cascade_activation_steepnesses_count=4
cascade_activation_steepnesses=2.50000000000000000000e-001 5.00000000000000000000e-001 7.50000000000000000000e-001 1.00000000000000000000e+000 
layer_sizes=10 6 2 
scale_included=0
neurons (num_inputs, activation_function, activation_steepness)=(0, 0, 0.00000000000000000000e+000) (0, 0, 0.00000000000000000000e+000) (0, 0, 0.00000000000000000000e+000) (0, 0, 0.00000000000000000000e+000) (0, 0, 0.00000000000000000000e+000) (0, 0, 0.00000000000000000000e+000) (0, 0, 0.00000000000000000000e+000) (0, 0, 0.00000000000000000000e+000) (0, 0, 0.00000000000000000000e+000) (0, 0, 0.00000000000000000000e+000) (10, 5, 5.00000000000000000000e-001) (10, 5, 5.00000000000000000000e-001) (10, 5, 5.00000000000000000000e-001) (10, 5, 5.00000000000000000000e-001) (10, 5, 5.00000000000000000000e-001) (0, 5, 0.00000000000000000000e+000) (6, 5, 5.00000000000000000000e-001) (0, 5, 0.00000000000000000000e+000) 
connections (connected_to_neuron, weight)=(0, 1.01754200458526610000e+000) (1, -2.92529881000518800000e-001) (2, -4.35581475496292110000e-001) (3, -9.67343151569366460000e-001) (4, 1.18238878250122070000e+000) (5, -2.93813556432724000000e-001) (6, -4.33392703533172610000e-001) (7, -3.40440094470977780000e-001) (8, 1.30885684490203860000e+000) (9, 1.55730569362640380000e+000) (0, 5.42321264743804930000e-001) (1, -3.37910771369934080000e-001) (2, -1.69821772724390030000e-002) (3, -4.18163806200027470000e-001) (4, 2.88956284523010250000e-001) (5, -1.39587670564651490000e-001) (6, -1.47081434726715090000e-001) (7, -3.53797674179077150000e-001) (8, -7.26886242628097530000e-002) (9, 1.37557780742645260000e+000) (0, 2.47814878821372990000e-001) (1, 6.62768185138702390000e-001) (2, 2.00080037117004390000e-001) (3, 5.37634313106536870000e-001) (4, 4.82420116662979130000e-001) (5, -4.70991611480712890000e-001) (6, -3.01146239042282100000e-001) (7, 1.14475645124912260000e-001) (8, 1.10097968578338620000e+000) (9, -1.10991239547729490000e+001) (0, -1.58301815390586850000e-001) (1, -3.23330432176589970000e-001) (2, -2.00928792357444760000e-001) (3, -7.99521446228027340000e-001) (4, -2.39960268139839170000e-001) (5, -3.11724305152893070000e-001) (6, 5.85875287652015690000e-002) (7, -3.70134681463241580000e-001) (8, 1.57426089048385620000e-001) (9, 4.41458606719970700000e+000) (0, 7.87797477096319200000e-003) (1, 2.33198449015617370000e-001) (2, 2.62486249208450320000e-001) (3, 4.23289626836776730000e-001) (4, 5.34603297710418700000e-001) (5, -6.28790378570556640000e-001) (6, -4.36026304960250850000e-001) (7, -3.09006571769714360000e-001) (8, -1.11993670463562010000e+000) (9, 6.93274199962615970000e-001) (10, -9.52003479003906250000e+000) (11, 1.56793174743652340000e+001) (12, 1.66615486145019530000e+001) (13, -1.87338657379150390000e+001) (14, -1.27457590103149410000e+001) (15, -2.43354946374893190000e-001) 
